svm_type c_svc
kernel_type linear
nr_class 3
total_sv 43
rho 0.9998450509083965 1.2790985668106767 1.000349492718945
label 1 2 0
probA -0.42392936740786163 0.11583296886960247 -3.999966565720772
probB 0.5957904823580417 3.4196666593274077 -0.9633482608652782
nr_sv 7 13 23
SV
0.0 1.0 1:0.0 2:0.0 3:0.0 4:0.0 5:0.0 6:0.0 7:0.0 8:0.0 9:0.0 10:3.176872989989739 11:0.0 12:0.0 13:0.0 14:0.0 15:0.0 16:0.0 17:0.0 18:0.0 
1.0 1.0 1:0.0 2:0.0 3:0.0 4:0.0 5:36.0 6:0.0 7:0.0 8:0.0 9:0.0 10:0.0 11:0.0 12:0.0 13:0.0 14:0.0 15:0.0 16:0.0 17:0.0 18:0.0 
0.7926661566835216 1.0 1:0.0 2:0.0 3:0.0 4:0.0 5:0.0 6:0.0 7:0.0 8:0.0 9:0.0 10:1.5884364949948695 11:0.0 12:0.0 13:0.0 14:0.0 15:0.0 16:0.0 17:0.0 18:0.0 
0.0 1.0 1:0.0 2:0.0 3:0.0 4:0.0 5:18.0 6:0.0 7:0.0 8:0.0 9:0.0 10:3.176872989989739 11:0.0 12:0.0 13:0.0 14:0.0 15:0.0 16:0.0 17:0.0 18:0.0 
0.19283701309372617 1.0 1:0.0 2:0.0 3:0.0 4:18.0 5:0.0 6:0.0 7:0.0 8:0.0 9:36.0 10:0.0 11:0.0 12:0.0 13:0.0 14:0.0 15:0.0 16:0.0 17:0.0 18:0.0 
1.0 1.0 1:0.0 2:0.0 3:0.0 4:0.0 5:18.0 6:0.0 7:0.0 8:0.0 9:0.0 10:0.0 11:0.0 12:0.0 13:0.0 14:0.0 15:0.0 16:0.0 17:0.0 18:0.0 
1.0 1.0 1:0.0 2:0.0 3:0.0 4:0.0 5:0.0 6:0.0 7:0.0 8:0.0 9:0.0 10:0.0 11:0.0 12:0.0 13:0.0 14:0.0 15:0.0 16:0.0 17:0.0 18:0.0 
-0.0 1.2550394441070008E-6 1:0.0 2:0.0 3:18.0 4:0.0 5:18.0 6:0.0 7:0.0 8:0.0 9:0.0 10:0.0 11:0.0 12:0.0 13:1.4354275230642564 14:0.0 15:0.0 16:0.0 17:0.0 18:0.0 
-0.0 0.5845895034123865 1:0.0 2:0.0 3:0.0 4:0.0 5:0.0 6:0.0 7:0.0 8:0.0 9:0.0 10:0.0 11:0.0 12:1.3078998712217706 13:0.0 14:0.0 15:1.3078998712217706 16:0.0 17:0.0 18:0.0 
-1.0 1.0 1:0.0 2:0.0 3:0.0 4:0.0 5:18.0 6:0.0 7:0.0 8:0.0 9:0.0 10:0.0 11:0.0 12:0.0 13:0.0 14:0.0 15:0.0 16:0.0 17:0.0 18:0.0 
-0.0 0.9706810600922582 1:0.0 2:0.0 3:0.0 4:0.0 5:0.0 6:0.0 7:0.0 8:0.0 9:0.0 10:0.0 11:0.0 12:0.0 13:1.4354275230642564 14:0.0 15:0.0 16:0.0 17:0.0 18:0.0 
-0.0 0.05394479208806947 1:0.0 2:0.0 3:0.0 4:0.0 5:36.0 6:0.0 7:0.0 8:0.0 9:36.0 10:0.0 11:2.648395063488611 12:0.0 13:0.0 14:0.0 15:0.0 16:0.0 17:0.0 18:2.6157997424435413 
-0.4047699947577769 1.0 1:0.0 2:0.0 3:0.0 4:0.0 5:72.0 6:0.0 7:0.0 8:0.0 9:0.0 10:0.0 11:0.0 12:0.0 13:0.0 14:0.0 15:0.0 16:0.0 17:0.0 18:0.0 
-0.4259390713376209 1.0 1:0.0 2:0.0 3:0.0 4:0.0 5:0.0 6:0.0 7:0.0 8:0.0 9:0.0 10:0.0 11:0.0 12:0.0 13:0.0 14:0.0 15:0.0 16:0.0 17:0.0 18:0.0 
-0.12707557770582256 0.0 1:0.0 2:0.0 3:0.0 4:0.0 5:18.0 6:0.0 7:0.0 8:0.0 9:36.0 10:0.0 11:0.0 12:0.0 13:1.4354275230642564 14:0.0 15:0.0 16:0.0 17:1.3078998712217706 18:0.0 
-0.8391622470828689 1.0 1:0.0 2:0.0 3:0.0 4:0.0 5:0.0 6:0.0 7:0.0 8:0.0 9:0.0 10:0.0 11:0.0 12:0.0 13:0.0 14:0.0 15:0.0 16:0.0 17:0.0 18:0.0 
-0.12326811452324447 0.1779457467813319 1:0.0 2:0.0 3:0.0 4:18.0 5:18.0 6:0.0 7:0.0 8:0.0 9:0.0 10:0.0 11:2.648395063488611 12:0.0 13:0.0 14:1.4354275230642564 15:0.0 16:0.0 17:0.0 18:0.0 
-0.0 6.905547630717239E-4 1:0.0 2:0.0 3:0.0 4:0.0 5:18.0 6:0.0 7:0.0 8:0.0 9:18.0 10:0.0 11:2.648395063488611 12:0.0 13:0.0 14:1.4354275230642564 15:0.0 16:0.0 17:1.3078998712217706 18:0.0 
-1.0 1.0 1:0.0 2:0.0 3:0.0 4:0.0 5:0.0 6:0.0 7:0.0 8:0.0 9:0.0 10:0.0 11:0.0 12:0.0 13:0.0 14:0.0 15:0.0 16:0.0 17:0.0 18:0.0 
-0.0652881643699127 0.0 1:0.0 2:0.0 3:0.0 4:18.0 5:36.0 6:0.0 7:0.0 8:0.0 9:36.0 10:0.0 11:0.0 12:0.0 13:1.4354275230642564 14:2.8708550461285127 15:0.0 16:2.6157997424435413 17:0.0 18:1.3078998712217706 
-0.3334753941889254 -4.0008050132321924E-4 1:0.0 2:0.0 3:0.0 4:0.0 5:18.0 6:0.0 7:0.0 8:0.0 9:54.0 10:0.0 11:0.0 12:0.0 13:0.0 14:0.0 15:0.0 16:0.0 17:0.0 18:0.0 
-0.7516409011114911 -0.0 1:0.0 2:0.0 3:0.0 4:0.0 5:0.0 6:0.0 7:0.0 8:0.0 9:18.0 10:0.0 11:0.0 12:0.0 13:0.0 14:0.0 15:0.0 16:0.0 17:0.0 18:0.0 
-0.0 -0.17788010093619938 1:0.0 2:0.0 3:0.0 4:18.0 5:18.0 6:0.0 7:0.0 8:0.0 9:0.0 10:0.0 11:0.0 12:0.0 13:0.0 14:0.0 15:0.0 16:0.0 17:0.0 18:0.0 
-0.9715205895224893 -0.0 1:0.0 2:0.0 3:0.0 4:0.0 5:18.0 6:0.0 7:0.0 8:0.0 9:0.0 10:1.5884364949948695 11:0.0 12:0.0 13:0.0 14:0.0 15:0.0 16:0.0 17:0.0 18:0.0 
-0.9991386685899134 -0.0 1:0.0 2:0.0 3:0.0 4:18.0 5:0.0 6:0.0 7:0.0 8:0.0 9:0.0 10:0.0 11:0.0 12:0.0 13:0.0 14:0.0 15:0.0 16:0.0 17:0.0 18:0.0 
-1.0 -0.0 1:0.0 2:0.0 3:0.0 4:0.0 5:18.0 6:0.0 7:0.0 8:0.0 9:0.0 10:1.5884364949948695 11:0.0 12:0.0 13:0.0 14:0.0 15:0.0 16:0.0 17:0.0 18:0.0 
-0.0 -0.07060715584996806 1:0.0 2:0.0 3:0.0 4:0.0 5:18.0 6:0.0 7:0.0 8:0.0 9:18.0 10:0.0 11:0.0 12:0.0 13:0.0 14:0.0 15:0.0 16:0.0 17:0.0 18:0.0 
-0.0 -6.439165330991548E-5 1:0.0 2:0.0 3:0.0 4:18.0 5:54.0 6:0.0 7:0.0 8:0.0 9:0.0 10:0.0 11:0.0 12:0.0 13:0.0 14:0.0 15:0.0 16:0.0 17:0.0 18:0.0 
-0.18046704491742604 -0.0 1:0.0 2:0.0 3:0.0 4:0.0 5:0.0 6:0.0 7:0.0 8:0.0 9:18.0 10:0.0 11:0.0 12:0.0 13:0.0 14:0.0 15:0.0 16:0.0 17:0.0 18:0.0 
-0.0 -0.9433863991743409 1:0.0 2:0.0 3:0.0 4:0.0 5:72.0 6:0.0 7:0.0 8:0.0 9:0.0 10:0.0 11:0.0 12:0.0 13:0.0 14:0.0 15:0.0 16:0.0 17:0.0 18:0.0 
-0.7707533855726033 -0.0 1:0.0 2:0.0 3:0.0 4:0.0 5:18.0 6:0.0 7:0.0 8:0.0 9:0.0 10:1.5884364949948695 11:0.0 12:0.0 13:0.0 14:0.0 15:0.0 16:0.0 17:0.0 18:0.0 
-4.29397480247613E-4 -0.0 1:0.0 2:0.0 3:0.0 4:0.0 5:0.0 6:0.0 7:0.0 8:36.0 9:0.0 10:1.5884364949948695 11:0.0 12:0.0 13:0.0 14:0.0 15:0.0 16:0.0 17:0.0 18:0.0 
-0.9259691070590316 -0.0 1:0.0 2:0.0 3:0.0 4:0.0 5:18.0 6:0.0 7:0.0 8:0.0 9:0.0 10:1.5884364949948695 11:0.0 12:0.0 13:0.0 14:0.0 15:0.0 16:0.0 17:0.0 18:0.0 
-0.0 -0.39621069781384866 1:0.0 2:0.0 3:0.0 4:0.0 5:0.0 6:0.0 7:0.0 8:0.0 9:0.0 10:0.0 11:0.0 12:0.0 13:0.0 14:0.0 15:0.0 16:0.0 17:0.0 18:0.0 
-1.0 -0.0 1:0.0 2:0.0 3:0.0 4:0.0 5:0.0 6:0.0 7:0.0 8:0.0 9:0.0 10:1.5884364949948695 11:0.0 12:0.0 13:0.0 14:0.0 15:0.0 16:0.0 17:0.0 18:0.0 
-0.0 -0.03612072282051054 1:0.0 2:0.0 3:0.0 4:0.0 5:36.0 6:0.0 7:0.0 8:0.0 9:18.0 10:0.0 11:0.0 12:0.0 13:0.0 14:0.0 15:0.0 16:0.0 17:0.0 18:0.0 
-0.0 -1.0 1:0.0 2:0.0 3:0.0 4:0.0 5:0.0 6:0.0 7:0.0 8:0.0 9:0.0 10:0.0 11:0.0 12:0.0 13:0.0 14:0.0 15:0.0 16:0.0 17:0.0 18:0.0 
-0.0 -1.0 1:0.0 2:0.0 3:0.0 4:0.0 5:0.0 6:0.0 7:0.0 8:0.0 9:0.0 10:0.0 11:0.0 12:0.0 13:0.0 14:0.0 15:0.0 16:0.0 17:0.0 18:0.0 
-0.0 -1.0 1:0.0 2:0.0 3:0.0 4:0.0 5:0.0 6:0.0 7:0.0 8:0.0 9:0.0 10:0.0 11:0.0 12:0.0 13:0.0 14:0.0 15:0.0 16:0.0 17:0.0 18:0.0 
-0.0 -0.9708723511483861 1:0.0 2:0.0 3:0.0 4:0.0 5:0.0 6:0.0 7:0.0 8:0.0 9:0.0 10:0.0 11:0.0 12:0.0 13:0.0 14:0.0 15:0.0 16:0.0 17:0.0 18:0.0 
-0.06660551155786999 -6.52022231495792E-4 1:0.0 2:0.0 3:0.0 4:0.0 5:0.0 6:0.0 7:0.0 8:0.0 9:18.0 10:0.0 11:0.0 12:0.0 13:0.0 14:0.0 15:0.0 16:0.0 17:0.0 18:0.0 
-0.0 -0.19165899004717696 1:0.0 2:0.0 3:0.0 4:0.0 5:18.0 6:0.0 7:0.0 8:0.0 9:0.0 10:0.0 11:0.0 12:0.0 13:0.0 14:0.0 15:0.0 16:0.0 17:0.0 18:0.0 
-0.0 -1.0 1:0.0 2:0.0 3:0.0 4:0.0 5:18.0 6:0.0 7:0.0 8:0.0 9:0.0 10:0.0 11:0.0 12:0.0 13:0.0 14:0.0 15:0.0 16:0.0 17:0.0 18:0.0 
