svm_type c_svc
kernel_type linear
nr_class 3
total_sv 35
rho -0.9998980434132806 -0.9998602417250145 -0.9995152370996034
label 0 2 1
probA -2.867674376722769 -3.4560843494423716 -1.1574079938758233
probB -0.09224089701459948 0.18676275685992147 0.4901921068150538
nr_sv 16 11 8
SV
1.1099889815571806E-5 0.0 1:0.0 2:0.0 3:0.0 4:0.0 5:0.0 6:0.0 7:0.0 8:0.0 9:36.0 10:0.0 11:0.0 12:0.0 13:0.0 14:0.0 15:0.0 16:0.0 
0.34267471146918665 0.0 1:0.0 2:0.0 3:0.0 4:0.0 5:0.0 6:0.0 7:0.0 8:0.0 9:0.0 10:0.0 11:0.0 12:0.0 13:0.0 14:0.0 15:0.0 16:0.0 
1.0 0.0 1:0.0 2:0.0 3:0.0 4:0.0 5:0.0 6:0.0 7:0.0 8:0.0 9:0.0 10:0.0 11:0.0 12:0.0 13:0.0 14:0.0 15:0.0 16:0.0 
1.0 0.0 1:0.0 2:0.0 3:0.0 4:0.0 5:0.0 6:0.0 7:0.0 8:0.0 9:0.0 10:0.0 11:0.0 12:0.0 13:0.0 14:0.0 15:0.0 16:0.0 
0.006172839506172839 0.0 1:0.0 2:0.0 3:0.0 4:0.0 5:0.0 6:0.0 7:0.0 8:0.0 9:18.0 10:0.0 11:0.0 12:0.0 13:0.0 14:0.0 15:0.0 16:0.0 
1.0 0.8426632576914616 1:0.0 2:0.0 3:0.0 4:0.0 5:0.0 6:0.0 7:0.0 8:0.0 9:0.0 10:0.0 11:0.0 12:0.0 13:0.0 14:0.0 15:0.0 16:0.0 
1.0 1.0 1:0.0 2:0.0 3:0.0 4:0.0 5:0.0 6:0.0 7:0.0 8:0.0 9:0.0 10:0.0 11:0.0 12:0.0 13:0.0 14:0.0 15:0.0 16:0.0 
1.0 1.0 1:0.0 2:0.0 3:0.0 4:0.0 5:0.0 6:0.0 7:0.0 8:0.0 9:0.0 10:0.0 11:0.0 12:0.0 13:0.0 14:0.0 15:0.0 16:0.0 
1.0 1.0 1:0.0 2:0.0 3:0.0 4:0.0 5:0.0 6:0.0 7:0.0 8:0.0 9:0.0 10:0.0 11:0.0 12:0.0 13:0.0 14:0.0 15:0.0 16:0.0 
1.0 1.0 1:0.0 2:0.0 3:0.0 4:0.0 5:0.0 6:0.0 7:0.0 8:0.0 9:0.0 10:0.0 11:0.0 12:0.0 13:0.0 14:0.0 15:0.0 16:0.0 
0.9938053149682754 2.1052501433243866E-7 1:0.0 2:0.0 3:0.0 4:0.0 5:0.0 6:0.0 7:0.0 8:0.0 9:18.0 10:0.0 11:0.0 12:0.0 13:0.0 14:0.0 15:0.0 16:0.0 
1.0 1.0 1:0.0 2:0.0 3:0.0 4:0.0 5:0.0 6:0.0 7:0.0 8:0.0 9:0.0 10:0.0 11:0.0 12:0.0 13:0.0 14:0.0 15:0.0 16:0.0 
2.964017797868479E-8 2.987004710242047E-8 1:0.0 2:0.0 3:0.0 4:0.0 5:0.0 6:0.0 7:0.0 8:0.0 9:0.0 10:0.0 11:0.0 12:1.3585780850979718 13:0.0 14:0.0 15:0.0 16:0.0 
1.0 1.0 1:0.0 2:0.0 3:0.0 4:0.0 5:0.0 6:0.0 7:0.0 8:0.0 9:0.0 10:0.0 11:0.0 12:0.0 13:0.0 14:0.0 15:0.0 16:0.0 
7.007130387827773E-7 0.0 1:0.0 2:0.0 3:0.0 4:0.0 5:0.0 6:0.0 7:0.0 8:18.0 9:0.0 10:1.3814109304909807 11:1.3023284191037368 12:0.0 13:0.0 14:0.0 15:0.0 16:0.0 
4.896915258331664E-8 0.5000004338858268 1:0.0 2:0.0 3:36.0 4:0.0 5:0.0 6:0.0 7:0.0 8:0.0 9:0.0 10:0.0 11:0.0 12:0.0 13:0.0 14:0.0 15:0.0 16:0.0 
-1.0 0.0 1:0.0 2:0.0 3:0.0 4:0.0 5:0.0 6:0.0 7:0.0 8:0.0 9:0.0 10:0.0 11:0.0 12:0.0 13:0.0 14:0.0 15:0.0 16:0.0 
-1.0 0.0 1:0.0 2:0.0 3:0.0 4:0.0 5:0.0 6:0.0 7:0.0 8:0.0 9:0.0 10:0.0 11:0.0 12:0.0 13:0.0 14:0.0 15:0.0 16:0.0 
-1.0 0.34876178337697333 1:0.0 2:0.0 3:0.0 4:0.0 5:0.0 6:0.0 7:0.0 8:0.0 9:0.0 10:0.0 11:0.0 12:0.0 13:0.0 14:0.0 15:0.0 16:0.0 
-1.0 1.0 1:0.0 2:0.0 3:0.0 4:0.0 5:0.0 6:0.0 7:0.0 8:0.0 9:0.0 10:0.0 11:0.0 12:0.0 13:0.0 14:0.0 15:0.0 16:0.0 
-1.0 1.0 1:0.0 2:0.0 3:0.0 4:0.0 5:0.0 6:0.0 7:0.0 8:0.0 9:0.0 10:0.0 11:0.0 12:0.0 13:0.0 14:0.0 15:0.0 16:0.0 
-0.3426647451558198 4.032345297407503E-5 1:0.0 2:0.0 3:0.0 4:0.0 5:0.0 6:0.0 7:0.0 8:0.0 9:0.0 10:0.0 11:0.0 12:0.0 13:0.0 14:0.0 15:1.7082773828202715 16:1.7082773828202715 
-1.0 1.0 1:0.0 2:0.0 3:0.0 4:0.0 5:0.0 6:0.0 7:0.0 8:0.0 9:0.0 10:0.0 11:0.0 12:0.0 13:0.0 14:0.0 15:0.0 16:0.0 
-1.0 1.0 1:0.0 2:0.0 3:0.0 4:0.0 5:0.0 6:0.0 7:0.0 8:0.0 9:0.0 10:0.0 11:0.0 12:0.0 13:0.0 14:0.0 15:0.0 16:0.0 
-1.0 3.0140817901232855E-6 1:0.0 2:0.0 3:0.0 4:0.0 5:0.0 6:0.0 7:0.0 8:0.0 9:18.0 10:0.0 11:0.0 12:0.0 13:0.0 14:0.0 15:0.0 16:0.0 
-1.0 1.0 1:0.0 2:0.0 3:0.0 4:0.0 5:0.0 6:0.0 7:0.0 8:0.0 9:0.0 10:0.0 11:0.0 12:0.0 13:0.0 14:0.0 15:0.0 16:0.0 
-1.0 1.0 1:0.0 2:0.0 3:0.0 4:0.0 5:0.0 6:0.0 7:0.0 8:0.0 9:0.0 10:0.0 11:0.0 12:0.0 13:0.0 14:0.0 15:0.0 16:0.0 
-1.0 -1.0 1:0.0 2:0.0 3:0.0 4:0.0 5:0.0 6:0.0 7:0.0 8:0.0 9:0.0 10:0.0 11:0.0 12:0.0 13:0.0 14:0.0 15:0.0 16:0.0 
-0.3426639319723501 -0.3426352954873547 1:0.0 2:0.0 3:0.0 4:0.0 5:0.0 6:0.0 7:0.0 8:0.0 9:0.0 10:0.0 11:0.0 12:0.0 13:1.7082773828202715 14:1.7082773828202715 15:0.0 16:0.0 
-1.0 -1.0 1:0.0 2:0.0 3:0.0 4:0.0 5:0.0 6:0.0 7:0.0 8:0.0 9:0.0 10:0.0 11:0.0 12:0.0 13:0.0 14:0.0 15:0.0 16:0.0 
-1.0 -1.0 1:0.0 2:0.0 3:0.0 4:0.0 5:0.0 6:0.0 7:0.0 8:0.0 9:0.0 10:0.0 11:0.0 12:0.0 13:0.0 14:0.0 15:0.0 16:0.0 
-1.0 -0.006169825424382716 1:0.0 2:0.0 3:18.0 4:0.0 5:0.0 6:0.0 7:0.0 8:0.0 9:0.0 10:0.0 11:0.0 12:0.0 13:0.0 14:0.0 15:0.0 16:0.0 
-1.0 -1.0 1:0.0 2:0.0 3:0.0 4:0.0 5:0.0 6:0.0 7:0.0 8:0.0 9:0.0 10:0.0 11:0.0 12:0.0 13:0.0 14:0.0 15:0.0 16:0.0 
-1.0 -1.0 1:0.0 2:0.0 3:0.0 4:0.0 5:0.0 6:0.0 7:0.0 8:0.0 9:0.0 10:0.0 11:0.0 12:0.0 13:0.0 14:0.0 15:0.0 16:0.0 
-1.0 -1.0 1:0.0 2:0.0 3:0.0 4:0.0 5:0.0 6:0.0 7:0.0 8:0.0 9:0.0 10:0.0 11:0.0 12:0.0 13:0.0 14:0.0 15:0.0 16:0.0 
