svm_type c_svc
kernel_type linear
nr_class 3
total_sv 23
rho 1.0000001810114725 1.0003422448978303 0.9999998732548931
label 2 1 0
probA -0.4476242378001432 -2.45605073454709 -2.988359361536675
probB 0.23216001328086905 1.2470281443059112 0.7911427101039197
nr_sv 6 6 11
SV
0.0 0.0809399903664084 1:0.0 2:0.0 3:18.0 4:18.0 5:0.0 6:0.0 7:0.0 8:0.0 9:36.0 10:0.0 11:0.0 12:0.0 13:0.0 14:0.0 15:0.0 16:0.0 17:0.0 18:0.0 19:4.15111404025326 20:0.0 
1.0 1.0 1:18.0 2:0.0 3:0.0 4:0.0 5:0.0 6:0.0 7:0.0 8:0.0 9:0.0 10:0.0 11:0.0 12:0.0 13:0.0 14:0.0 15:0.0 16:0.0 17:0.0 18:0.0 19:0.0 20:0.0 
0.5382349626065547 0.5382349626065547 1:18.0 2:0.0 3:0.0 4:0.0 5:0.0 6:0.0 7:0.0 8:0.0 9:0.0 10:0.0 11:0.0 12:0.0 13:0.0 14:0.0 15:0.0 16:0.0 17:0.0 18:1.3420918901186123 19:0.0 20:1.3837046800844202 
0.0 1.0 1:18.0 2:0.0 3:18.0 4:0.0 5:0.0 6:0.0 7:0.0 8:0.0 9:0.0 10:0.0 11:0.0 12:0.0 13:0.0 14:0.0 15:0.0 16:0.0 17:0.0 18:0.0 19:0.0 20:0.0 
0.006172839506172839 1.0 1:0.0 2:0.0 3:18.0 4:0.0 5:0.0 6:0.0 7:0.0 8:0.0 9:0.0 10:0.0 11:0.0 12:0.0 13:0.0 14:0.0 15:0.0 16:0.0 17:0.0 18:0.0 19:0.0 20:0.0 
0.20816574341230426 1.0 1:0.0 2:0.0 3:0.0 4:0.0 5:18.0 6:0.0 7:0.0 8:0.0 9:0.0 10:0.0 11:0.0 12:0.0 13:0.0 14:0.0 15:0.0 16:0.0 17:0.0 18:0.0 19:0.0 20:0.0 
-0.0 1.0 1:0.0 2:0.0 3:0.0 4:0.0 5:0.0 6:0.0 7:0.0 8:0.0 9:0.0 10:0.0 11:0.0 12:0.0 13:0.0 14:0.0 15:0.0 16:0.0 17:0.0 18:0.0 19:0.0 20:0.0 
-0.0 1.0 1:18.0 2:0.0 3:0.0 4:0.0 5:0.0 6:0.0 7:0.0 8:0.0 9:0.0 10:0.0 11:0.0 12:0.0 13:0.0 14:0.0 15:0.0 16:0.0 17:0.0 18:0.0 19:0.0 20:0.0 
-0.012345679012345678 1.0 1:0.0 2:0.0 3:0.0 4:0.0 5:0.0 6:0.0 7:0.0 8:0.0 9:0.0 10:0.0 11:0.0 12:0.0 13:0.0 14:0.0 15:0.0 16:0.0 17:0.0 18:0.0 19:0.0 20:0.0 
-0.20199290390613142 0.20199290390613142 1:0.0 2:0.0 3:0.0 4:0.0 5:18.0 6:0.0 7:0.0 8:0.0 9:0.0 10:0.0 11:0.0 12:0.0 13:0.0 14:0.0 15:1.8167129588781992 16:1.8167129588781992 17:1.8167129588781992 18:0.0 19:0.0 20:0.0 
-0.5382349626065547 1.0 1:18.0 2:0.0 3:0.0 4:0.0 5:0.0 6:0.0 7:0.0 8:0.0 9:0.0 10:0.0 11:0.0 12:0.0 13:0.0 14:0.0 15:0.0 16:0.0 17:0.0 18:0.0 19:0.0 20:0.0 
-1.0 1.0 1:18.0 2:0.0 3:0.0 4:0.0 5:0.0 6:0.0 7:0.0 8:0.0 9:0.0 10:0.0 11:0.0 12:0.0 13:0.0 14:0.0 15:0.0 16:0.0 17:0.0 18:0.0 19:0.0 20:0.0 
-0.08093939374289795 -0.0 1:0.0 2:0.0 3:0.0 4:0.0 5:0.0 6:0.0 7:0.0 8:0.0 9:36.0 10:0.0 11:0.0 12:0.0 13:0.0 14:0.0 15:0.0 16:0.0 17:0.0 18:0.0 19:0.0 20:0.0 
-0.04144078139867659 -0.0 1:18.0 2:0.0 3:36.0 4:0.0 5:0.0 6:0.0 7:0.0 8:0.0 9:0.0 10:0.0 11:0.0 12:0.0 13:0.0 14:0.0 15:0.0 16:0.0 17:0.0 18:0.0 19:0.0 20:0.0 
-0.07907335735101347 -0.0 1:18.0 2:0.0 3:0.0 4:18.0 5:0.0 6:0.0 7:0.0 8:0.0 9:0.0 10:0.0 11:0.0 12:2.763583008244493 13:0.0 14:0.0 15:0.0 16:0.0 17:0.0 18:0.0 19:0.0 20:0.0 
-0.99805692014485 -0.0 1:18.0 2:0.0 3:18.0 4:0.0 5:0.0 6:0.0 7:0.0 8:0.0 9:0.0 10:0.0 11:0.0 12:0.0 13:0.0 14:0.0 15:0.0 16:0.0 17:0.0 18:0.0 19:0.0 20:0.0 
-1.0 -0.0 1:0.0 2:0.0 3:18.0 4:0.0 5:0.0 6:0.0 7:0.0 8:0.0 9:0.0 10:0.0 11:0.0 12:0.0 13:0.0 14:0.0 15:0.0 16:0.0 17:0.0 18:0.0 19:0.0 20:0.0 
-0.0 -1.0 1:0.0 2:0.0 3:0.0 4:0.0 5:0.0 6:0.0 7:0.0 8:0.0 9:0.0 10:0.0 11:0.0 12:0.0 13:0.0 14:0.0 15:0.0 16:0.0 17:0.0 18:0.0 19:0.0 20:0.0 
-0.0 -1.0 1:18.0 2:0.0 3:0.0 4:0.0 5:0.0 6:0.0 7:0.0 8:0.0 9:0.0 10:0.0 11:0.0 12:0.0 13:0.0 14:0.0 15:0.0 16:0.0 17:0.0 18:0.0 19:0.0 20:0.0 
-1.0 -0.20199290390613142 1:0.0 2:0.0 3:0.0 4:0.0 5:18.0 6:0.0 7:0.0 8:0.0 9:0.0 10:0.0 11:0.0 12:0.0 13:0.0 14:0.0 15:0.0 16:0.0 17:0.0 18:0.0 19:0.0 20:0.0 
-0.530391944702871 -1.0 1:18.0 2:0.0 3:0.0 4:0.0 5:0.0 6:0.0 7:0.0 8:0.0 9:0.0 10:0.0 11:0.0 12:0.0 13:0.0 14:0.0 15:0.0 16:0.0 17:0.0 18:0.0 19:0.0 20:0.0 
-0.8892725556326538 -1.0 1:18.0 2:0.0 3:0.0 4:0.0 5:0.0 6:0.0 7:0.0 8:0.0 9:0.0 10:0.0 11:0.0 12:0.0 13:0.0 14:0.0 15:0.0 16:0.0 17:0.0 18:0.0 19:0.0 20:0.0 
-0.0 -1.0 1:0.0 2:0.0 3:0.0 4:0.0 5:0.0 6:0.0 7:0.0 8:0.0 9:0.0 10:0.0 11:0.0 12:0.0 13:0.0 14:0.0 15:0.0 16:0.0 17:0.0 18:0.0 19:0.0 20:0.0 
